<?xml version="1.0"?>
<opencv_storage>
<opencv_ml_boost>
  <format>3</format>
  <is_classifier>1</is_classifier>
  <var_all>10</var_all>
  <var_count>9</var_count>
  <ord_var_count>9</ord_var_count>
  <cat_var_count>1</cat_var_count>
  <training_params>
    <boosting_type>GentleAdaboost</boosting_type>
    <use_surrogates>0</use_surrogates>
    <max_categories>10</max_categories>
    <regression_accuracy>9.9999997764825821e-03</regression_accuracy>
    <max_depth>1</max_depth>
    <min_sample_count>10</min_sample_count>
    <cross_validation_folds>0</cross_validation_folds>
    <weight_trimming_rate>9.4999999999999996e-01</weight_trimming_rate></training_params>
  <global_var_idx>1</global_var_idx>
  <var_idx>
    0 1 2 3 4 5 6 7 8</var_idx>
  <var_type>
    0 0 0 0 0 0 0 0 0 1</var_type>
  <cat_ofs>
    0 0 0 0 0 0 0 0 0 0 0 0 0 0 0 0 0 0</cat_ofs>
  <class_labels>
    0 1</class_labels>
  <missing_subst>
    0. 0. 0. 0. 0. 0. 0. 0. 0. 0.</missing_subst>
  <ntrees>100</ntrees>
  <trees>
    <_>
      <nodes>
        <_>
          <depth>0</depth>
          <value>-2.8404669260700421e-01</value>
          <splits>
            <_><var>0</var>
              <quality>1.5246433019638062e-01</quality>
              <le>4.8592698574066162e-01</le></_></splits></_>
        <_>
          <depth>1</depth>
          <value>-6.4935064935065095e-02</value></_>
        <_>
          <depth>1</depth>
          <value>-6.1165048543689360e-01</value></_></nodes></_>
    <_>
      <nodes>
        <_>
          <depth>0</depth>
          <value>-3.4675237612724445e-02</value>
          <splits>
            <_><var>1</var>
              <quality>8.8982701301574707e-02</quality>
              <le>1.9046400487422943e-01</le></_></splits></_>
        <_>
          <depth>1</depth>
          <value>-4.2912600112705607e-01</value></_>
        <_>
          <depth>1</depth>
          <value>1.8786287806545965e-01</value></_></nodes></_>
    <_>
      <nodes>
        <_>
          <depth>0</depth>
          <value>3.8686729507353690e-02</value>
          <splits>
            <_><var>3</var>
              <quality>3.7815451622009277e-02</quality>
              <le>2.2030800580978394e-01</le></_></splits></_>
        <_>
          <depth>1</depth>
          <value>7.5391547456106142e-02</value></_>
        <_>
          <depth>1</depth>
          <value>-1.</value></_></nodes></_>
    <_>
      <nodes>
        <_>
          <depth>0</depth>
          <value>-5.6034587434916974e-02</value>
          <splits>
            <_><var>4</var>
              <quality>3.8561355322599411e-02</quality>
              <le>6.6603049635887146e-02</le></_></splits></_>
        <_>
          <depth>1</depth>
          <value>-3.3190609628779394e-01</value></_>
        <_>
          <depth>1</depth>
          <value>7.3286724013558430e-02</value></_></nodes></_>
    <_>
      <nodes>
        <_>
          <depth>0</depth>
          <value>1.1664690757729863e-02</value>
          <splits>
            <_><var>7</var>
              <quality>4.1732706129550934e-02</quality>
              <le>3.0231650918722153e-02</le></_></splits></_>
        <_>
          <depth>1</depth>
          <value>3.0007458784846180e-01</value></_>
        <_>
          <depth>1</depth>
          <value>-1.3589225268473248e-01</value></_></nodes></_>
    <_>
      <nodes>
        <_>
          <depth>0</depth>
          <value>2.7653565031473870e-02</value>
          <splits>
            <_><var>5</var>
              <quality>4.0014054626226425e-02</quality>
              <le>1.9298050552606583e-02</le></_></splits></_>
        <_>
          <depth>1</depth>
          <value>-1.</value></_>
        <_>
          <depth>1</depth>
          <value>6.7740777843625921e-02</value></_></nodes></_>
    <_>
      <nodes>
        <_>
          <depth>0</depth>
          <value>-1.9779996333412458e-02</value>
          <splits>
            <_><var>5</var>
              <quality>3.0320554971694946e-02</quality>
              <le>5.7513900101184845e-02</le></_></splits></_>
        <_>
          <depth>1</depth>
          <value>1.6878919644589702e-01</value></_>
        <_>
          <depth>1</depth>
          <value>-1.8611079169506189e-01</value></_></nodes></_>
    <_>
      <nodes>
        <_>
          <depth>0</depth>
          <value>6.5849758343615502e-03</value>
          <splits>
            <_><var>3</var>
              <quality>4.1359383612871170e-02</quality>
              <le>8.3027943968772888e-02</le></_></splits></_>
        <_>
          <depth>1</depth>
          <value>-3.1877562762708611e-01</value></_>
        <_>
          <depth>1</depth>
          <value>1.4018710878956059e-01</value></_></nodes></_>
    <_>
      <nodes>
        <_>
          <depth>0</depth>
          <value>-7.1109602535746295e-03</value>
          <splits>
            <_><var>1</var>
              <quality>2.8579987585544586e-02</quality>
              <le>4.7921699285507202e-01</le></_></splits></_>
        <_>
          <depth>1</depth>
          <value>-3.6889223926530122e-02</value></_>
        <_>
          <depth>1</depth>
          <value>1.</value></_></nodes></_>
    <_>
      <nodes>
        <_>
          <depth>0</depth>
          <value>5.6727815113645106e-03</value>
          <splits>
            <_><var>0</var>
              <quality>2.5231150910258293e-02</quality>
              <le>2.6547300815582275e-01</le></_></splits></_>
        <_>
          <depth>1</depth>
          <value>3.0722002585532210e-01</value></_>
        <_>
          <depth>1</depth>
          <value>-8.2127066113036273e-02</value></_></nodes></_>
    <_>
      <nodes>
        <_>
          <depth>0</depth>
          <value>7.8385025428042987e-03</value>
          <splits>
            <_><var>8</var>
              <quality>2.6576846837997437e-02</quality>
              <le>1.0196149349212646e-02</le></_></splits></_>
        <_>
          <depth>1</depth>
          <value>-1.</value></_>
        <_>
          <depth>1</depth>
          <value>3.5582947242589431e-02</value></_></nodes></_>
    <_>
      <nodes>
        <_>
          <depth>0</depth>
          <value>-2.0617820458369074e-02</value>
          <splits>
            <_><var>1</var>
              <quality>2.1071735769510269e-02</quality>
              <le>6.5133199095726013e-02</le></_></splits></_>
        <_>
          <depth>1</depth>
          <value>-1.</value></_>
        <_>
          <depth>1</depth>
          <value>1.4682913035081180e-03</value></_></nodes></_>
    <_>
      <nodes>
        <_>
          <depth>0</depth>
          <value>-2.6162630038377892e-03</value>
          <splits>
            <_><var>6</var>
              <quality>2.6726616546511650e-02</quality>
              <le>3.1980350613594055e-02</le></_></splits></_>
        <_>
          <depth>1</depth>
          <value>3.2538904829486187e-01</value></_>
        <_>
          <depth>1</depth>
          <value>-8.8251268297090929e-02</value></_></nodes></_>
    <_>
      <nodes>
        <_>
          <depth>0</depth>
          <value>-5.4568732523494652e-03</value>
          <splits>
            <_><var>8</var>
              <quality>2.3692227900028229e-02</quality>
              <le>5.2748747169971466e-02</le></_></splits></_>
        <_>
          <depth>1</depth>
          <value>-8.0112554416278764e-02</value></_>
        <_>
          <depth>1</depth>
          <value>3.2747360793433838e-01</value></_></nodes></_>
    <_>
      <nodes>
        <_>
          <depth>0</depth>
          <value>8.0047926246151792e-03</value>
          <splits>
            <_><var>7</var>
              <quality>2.2657273337244987e-02</quality>
              <le>8.1899248063564301e-02</le></_></splits></_>
        <_>
          <depth>1</depth>
          <value>4.1623012717007433e-02</value></_>
        <_>
          <depth>1</depth>
          <value>-7.0011503429146260e-01</value></_></nodes></_>
    <_>
      <nodes>
        <_>
          <depth>0</depth>
          <value>-1.0269588829341427e-02</value>
          <splits>
            <_><var>6</var>
              <quality>2.1037667989730835e-02</quality>
              <le>1.8504450097680092e-02</le></_></splits></_>
        <_>
          <depth>1</depth>
          <value>-8.1837477615986320e-01</value></_>
        <_>
          <depth>1</depth>
          <value>1.6907416309525355e-02</value></_></nodes></_>
    <_>
      <nodes>
        <_>
          <depth>0</depth>
          <value>9.0786926598529927e-04</value>
          <splits>
            <_><var>4</var>
              <quality>1.7916448414325714e-02</quality>
              <le>2.7858899906277657e-02</le></_></splits></_>
        <_>
          <depth>1</depth>
          <value>1.</value></_>
        <_>
          <depth>1</depth>
          <value>-1.7975581848353531e-02</value></_></nodes></_>
    <_>
      <nodes>
        <_>
          <depth>0</depth>
          <value>-6.7898402134215332e-03</value>
          <splits>
            <_><var>7</var>
              <quality>2.0993083715438843e-02</quality>
              <le>1.2009100057184696e-02</le></_></splits></_>
        <_>
          <depth>1</depth>
          <value>-1.</value></_>
        <_>
          <depth>1</depth>
          <value>1.5431879560159576e-02</value></_></nodes></_>
    <_>
      <nodes>
        <_>
          <depth>0</depth>
          <value>-4.6241748900624898e-03</value>
          <splits>
            <_><var>2</var>
              <quality>2.1846143528819084e-02</quality>
              <le>3.2307052612304688e-01</le></_></splits></_>
        <_>
          <depth>1</depth>
          <value>-2.7528541988986601e-02</value></_>
        <_>
          <depth>1</depth>
          <value>1.</value></_></nodes></_>
    <_>
      <nodes>
        <_>
          <depth>0</depth>
          <value>-2.4340279131462006e-03</value>
          <splits>
            <_><var>3</var>
              <quality>1.3811470009386539e-02</quality>
              <le>2.2030800580978394e-01</le></_></splits></_>
        <_>
          <depth>1</depth>
          <value>1.2156173055155352e-02</value></_>
        <_>
          <depth>1</depth>
          <value>-1.</value></_></nodes></_>
    <_>
      <nodes>
        <_>
          <depth>0</depth>
          <value>-9.0586148425979719e-03</value>
          <splits>
            <_><var>3</var>
              <quality>3.2583985477685928e-02</quality>
              <le>2.0612549781799316e-01</le></_></splits></_>
        <_>
          <depth>1</depth>
          <value>-4.6975505360533278e-02</value></_>
        <_>
          <depth>1</depth>
          <value>8.8937276935060250e-01</value></_></nodes></_>
    <_>
      <nodes>
        <_>
          <depth>0</depth>
          <value>9.5691413012016328e-03</value>
          <splits>
            <_><var>0</var>
              <quality>1.9008388742804527e-02</quality>
              <le>5.2327102422714233e-01</le></_></splits></_>
        <_>
          <depth>1</depth>
          <value>9.0076710289967193e-02</value></_>
        <_>
          <depth>1</depth>
          <value>-2.3805230716303133e-01</value></_></nodes></_>
    <_>
      <nodes>
        <_>
          <depth>0</depth>
          <value>-2.3724083201006043e-03</value>
          <splits>
            <_><var>4</var>
              <quality>1.6886780038475990e-02</quality>
              <le>2.2021099925041199e-01</le></_></splits></_>
        <_>
          <depth>1</depth>
          <value>-2.0088017469860612e-02</value></_>
        <_>
          <depth>1</depth>
          <value>1.</value></_></nodes></_>
    <_>
      <nodes>
        <_>
          <depth>0</depth>
          <value>8.1677888782954681e-03</value>
          <splits>
            <_><var>0</var>
              <quality>1.5553420409560204e-02</quality>
              <le>1.2695199251174927e-01</le></_></splits></_>
        <_>
          <depth>1</depth>
          <value>-7.6666231987761979e-01</value></_>
        <_>
          <depth>1</depth>
          <value>2.9156629831031119e-02</value></_></nodes></_>
    <_>
      <nodes>
        <_>
          <depth>0</depth>
          <value>-4.7830412394885479e-03</value>
          <splits>
            <_><var>2</var>
              <quality>1.9055230543017387e-02</quality>
              <le>6.6996544599533081e-02</le></_></splits></_>
        <_>
          <depth>1</depth>
          <value>6.2376630781091780e-01</value></_>
        <_>
          <depth>1</depth>
          <value>-3.6658471483981367e-02</value></_></nodes></_>
    <_>
      <nodes>
        <_>
          <depth>0</depth>
          <value>1.0155299524958934e-03</value>
          <splits>
            <_><var>0</var>
              <quality>1.5305056236684322e-02</quality>
              <le>6.8153351545333862e-01</le></_></splits></_>
        <_>
          <depth>1</depth>
          <value>-3.7506988036703569e-02</value></_>
        <_>
          <depth>1</depth>
          <value>4.1851537329170130e-01</value></_></nodes></_>
    <_>
      <nodes>
        <_>
          <depth>0</depth>
          <value>-2.2221412963997794e-04</value>
          <splits>
            <_><var>0</var>
              <quality>1.9093595445156097e-02</quality>
              <le>7.7228051424026489e-01</le></_></splits></_>
        <_>
          <depth>1</depth>
          <value>2.8062672939512465e-02</value></_>
        <_>
          <depth>1</depth>
          <value>-7.1149983645634307e-01</value></_></nodes></_>
    <_>
      <nodes>
        <_>
          <depth>0</depth>
          <value>-1.0301928004469415e-02</value>
          <splits>
            <_><var>3</var>
              <quality>1.3173501007258892e-02</quality>
              <le>2.2030800580978394e-01</le></_></splits></_>
        <_>
          <depth>1</depth>
          <value>3.5507489992399489e-03</value></_>
        <_>
          <depth>1</depth>
          <value>-1.</value></_></nodes></_>
    <_>
      <nodes>
        <_>
          <depth>0</depth>
          <value>1.4882474790464854e-08</value>
          <splits>
            <_><var>7</var>
              <quality>1.8689567223191261e-02</quality>
              <le>1.4561150223016739e-02</le></_></splits></_>
        <_>
          <depth>1</depth>
          <value>7.4663711909965069e-01</value></_>
        <_>
          <depth>1</depth>
          <value>-2.6346004634759970e-02</value></_></nodes></_>
    <_>
      <nodes>
        <_>
          <depth>0</depth>
          <value>6.4180278723719522e-03</value>
          <splits>
            <_><var>2</var>
              <quality>1.8919277936220169e-02</quality>
              <le>2.1342000365257263e-01</le></_></splits></_>
        <_>
          <depth>1</depth>
          <value>-7.0476585972259517e-02</value></_>
        <_>
          <depth>1</depth>
          <value>2.6526298160525580e-01</value></_></nodes></_>
    <_>
      <nodes>
        <_>
          <depth>0</depth>
          <value>-1.1653260562682026e-02</value>
          <splits>
            <_><var>8</var>
              <quality>1.6141252592206001e-02</quality>
              <le>3.4777298569679260e-02</le></_></splits></_>
        <_>
          <depth>1</depth>
          <value>1.1178191312723605e-01</value></_>
        <_>
          <depth>1</depth>
          <value>-1.4830772211255044e-01</value></_></nodes></_>
    <_>
      <nodes>
        <_>
          <depth>0</depth>
          <value>1.0804687709789890e-03</value>
          <splits>
            <_><var>5</var>
              <quality>1.6132866963744164e-02</quality>
              <le>1.1043299734592438e-01</le></_></splits></_>
        <_>
          <depth>1</depth>
          <value>-3.6341763230493117e-02</value></_>
        <_>
          <depth>1</depth>
          <value>4.5475299174339762e-01</value></_></nodes></_>
    <_>
      <nodes>
        <_>
          <depth>0</depth>
          <value>4.6030629975285136e-03</value>
          <splits>
            <_><var>5</var>
              <quality>1.5054886229336262e-02</quality>
              <le>4.8653848469257355e-02</le></_></splits></_>
        <_>
          <depth>1</depth>
          <value>1.6300225278461958e-01</value></_>
        <_>
          <depth>1</depth>
          <value>-9.5478201707185642e-02</value></_></nodes></_>
    <_>
      <nodes>
        <_>
          <depth>0</depth>
          <value>-6.7451675193149086e-03</value>
          <splits>
            <_><var>4</var>
              <quality>1.9592100754380226e-02</quality>
              <le>8.0286048352718353e-02</le></_></splits></_>
        <_>
          <depth>1</depth>
          <value>-1.5852469101128519e-01</value></_>
        <_>
          <depth>1</depth>
          <value>1.2887897225488829e-01</value></_></nodes></_>
    <_>
      <nodes>
        <_>
          <depth>0</depth>
          <value>9.3480804194598557e-03</value>
          <splits>
            <_><var>6</var>
              <quality>1.4836745336651802e-02</quality>
              <le>1.0027374327182770e-01</le></_></splits></_>
        <_>
          <depth>1</depth>
          <value>3.6858431928313125e-02</value></_>
        <_>
          <depth>1</depth>
          <value>-5.5578070960737724e-01</value></_></nodes></_>
    <_>
      <nodes>
        <_>
          <depth>0</depth>
          <value>-4.8778947670081001e-03</value>
          <splits>
            <_><var>1</var>
              <quality>1.4372518286108971e-02</quality>
              <le>2.1403300762176514e-01</le></_></splits></_>
        <_>
          <depth>1</depth>
          <value>-1.4224599276465572e-01</value></_>
        <_>
          <depth>1</depth>
          <value>1.0523200772736824e-01</value></_></nodes></_>
    <_>
      <nodes>
        <_>
          <depth>0</depth>
          <value>1.0673216779599085e-03</value>
          <splits>
            <_><var>1</var>
              <quality>1.4198161661624908e-02</quality>
              <le>3.8069301843643188e-01</le></_></splits></_>
        <_>
          <depth>1</depth>
          <value>3.4725555805087426e-02</value></_>
        <_>
          <depth>1</depth>
          <value>-4.4335802593052170e-01</value></_></nodes></_>
    <_>
      <nodes>
        <_>
          <depth>0</depth>
          <value>-5.5944647974775176e-03</value>
          <splits>
            <_><var>1</var>
              <quality>1.6281496733427048e-02</quality>
              <le>4.4594001770019531e-01</le></_></splits></_>
        <_>
          <depth>1</depth>
          <value>-2.8647316514162354e-02</value></_>
        <_>
          <depth>1</depth>
          <value>7.3734890740454762e-01</value></_></nodes></_>
    <_>
      <nodes>
        <_>
          <depth>0</depth>
          <value>6.0657343632359020e-03</value>
          <splits>
            <_><var>0</var>
              <quality>1.5998499467968941e-02</quality>
              <le>5.1543498039245605e-01</le></_></splits></_>
        <_>
          <depth>1</depth>
          <value>7.8195546415128075e-02</value></_>
        <_>
          <depth>1</depth>
          <value>-2.2699588926156014e-01</value></_></nodes></_>
    <_>
      <nodes>
        <_>
          <depth>0</depth>
          <value>1.4839844503921537e-03</value>
          <splits>
            <_><var>0</var>
              <quality>1.3643313199281693e-02</quality>
              <le>7.2185951471328735e-01</le></_></splits></_>
        <_>
          <depth>1</depth>
          <value>-2.8133661153912765e-02</value></_>
        <_>
          <depth>1</depth>
          <value>4.8555094718646113e-01</value></_></nodes></_>
    <_>
      <nodes>
        <_>
          <depth>0</depth>
          <value>4.5602644683683689e-03</value>
          <splits>
            <_><var>5</var>
              <quality>1.2401403859257698e-02</quality>
              <le>1.9298050552606583e-02</le></_></splits></_>
        <_>
          <depth>1</depth>
          <value>-1.</value></_>
        <_>
          <depth>1</depth>
          <value>1.7542272821912636e-02</value></_></nodes></_>
    <_>
      <nodes>
        <_>
          <depth>0</depth>
          <value>-6.7158734265377546e-03</value>
          <splits>
            <_><var>5</var>
              <quality>3.4765996038913727e-02</quality>
              <le>2.2123850882053375e-02</le></_></splits></_>
        <_>
          <depth>1</depth>
          <value>1.</value></_>
        <_>
          <depth>1</depth>
          <value>-4.3081503772856113e-02</value></_></nodes></_>
    <_>
      <nodes>
        <_>
          <depth>0</depth>
          <value>2.2443784718532839e-03</value>
          <splits>
            <_><var>8</var>
              <quality>1.6289271414279938e-02</quality>
              <le>1.1373450048267841e-02</le></_></splits></_>
        <_>
          <depth>1</depth>
          <value>-8.5357518282777867e-01</value></_>
        <_>
          <depth>1</depth>
          <value>2.2303984161839201e-02</value></_></nodes></_>
    <_>
      <nodes>
        <_>
          <depth>0</depth>
          <value>-6.5129374980617601e-03</value>
          <splits>
            <_><var>6</var>
              <quality>1.1263416148722172e-02</quality>
              <le>6.8149000406265259e-02</le></_></splits></_>
        <_>
          <depth>1</depth>
          <value>-6.4108851358691391e-02</value></_>
        <_>
          <depth>1</depth>
          <value>1.9867843555810452e-01</value></_></nodes></_>
    <_>
      <nodes>
        <_>
          <depth>0</depth>
          <value>6.3193380703430915e-03</value>
          <splits>
            <_><var>6</var>
              <quality>1.8416499719023705e-02</quality>
              <le>5.8926001191139221e-02</le></_></splits></_>
        <_>
          <depth>1</depth>
          <value>1.0191794273495215e-01</value></_>
        <_>
          <depth>1</depth>
          <value>-1.9615668212565598e-01</value></_></nodes></_>
    <_>
      <nodes>
        <_>
          <depth>0</depth>
          <value>-7.8317119042076722e-03</value>
          <splits>
            <_><var>6</var>
              <quality>1.8011195585131645e-02</quality>
              <le>4.6831350773572922e-02</le></_></splits></_>
        <_>
          <depth>1</depth>
          <value>-1.3556001962439015e-01</value></_>
        <_>
          <depth>1</depth>
          <value>1.4016797819463842e-01</value></_></nodes></_>
    <_>
      <nodes>
        <_>
          <depth>0</depth>
          <value>-5.3853773685709613e-04</value>
          <splits>
            <_><var>6</var>
              <quality>2.0517384633421898e-02</quality>
              <le>3.0176650732755661e-02</le></_></splits></_>
        <_>
          <depth>1</depth>
          <value>2.7629106965005046e-01</value></_>
        <_>
          <depth>1</depth>
          <value>-7.8646374592058615e-02</value></_></nodes></_>
    <_>
      <nodes>
        <_>
          <depth>0</depth>
          <value>-2.1651869539041253e-03</value>
          <splits>
            <_><var>6</var>
              <quality>1.5340482816100121e-02</quality>
              <le>2.4625550955533981e-02</le></_></splits></_>
        <_>
          <depth>1</depth>
          <value>-3.6271564658067679e-01</value></_>
        <_>
          <depth>1</depth>
          <value>4.2654154731436689e-02</value></_></nodes></_>
    <_>
      <nodes>
        <_>
          <depth>0</depth>
          <value>-1.3987998111410326e-03</value>
          <splits>
            <_><var>6</var>
              <quality>1.5019226819276810e-02</quality>
              <le>2.5797151029109955e-02</le></_></splits></_>
        <_>
          <depth>1</depth>
          <value>3.0179195000176562e-01</value></_>
        <_>
          <depth>1</depth>
          <value>-5.3594349569923545e-02</value></_></nodes></_>
    <_>
      <nodes>
        <_>
          <depth>0</depth>
          <value>4.1730341528857431e-03</value>
          <splits>
            <_><var>5</var>
              <quality>1.3481881469488144e-02</quality>
              <le>4.2932149022817612e-02</le></_></splits></_>
        <_>
          <depth>1</depth>
          <value>-2.0560440658387497e-01</value></_>
        <_>
          <depth>1</depth>
          <value>7.1844532656720042e-02</value></_></nodes></_>
    <_>
      <nodes>
        <_>
          <depth>0</depth>
          <value>-2.5464242012593024e-03</value>
          <splits>
            <_><var>5</var>
              <quality>1.9563535228371620e-02</quality>
              <le>4.8653848469257355e-02</le></_></splits></_>
        <_>
          <depth>1</depth>
          <value>1.8743045789141555e-01</value></_>
        <_>
          <depth>1</depth>
          <value>-1.1091949056051616e-01</value></_></nodes></_>
    <_>
      <nodes>
        <_>
          <depth>0</depth>
          <value>9.4237888678611113e-04</value>
          <splits>
            <_><var>3</var>
              <quality>1.5899725258350372e-02</quality>
              <le>8.3027943968772888e-02</le></_></splits></_>
        <_>
          <depth>1</depth>
          <value>-2.0425409755319199e-01</value></_>
        <_>
          <depth>1</depth>
          <value>8.2597038258657690e-02</value></_></nodes></_>
    <_>
      <nodes>
        <_>
          <depth>0</depth>
          <value>8.4075767480599876e-05</value>
          <splits>
            <_><var>0</var>
              <quality>1.2054366059601307e-02</quality>
              <le>5.2327102422714233e-01</le></_></splits></_>
        <_>
          <depth>1</depth>
          <value>5.7988940635883612e-02</value></_>
        <_>
          <depth>1</depth>
          <value>-2.1939328399334215e-01</value></_></nodes></_>
    <_>
      <nodes>
        <_>
          <depth>0</depth>
          <value>-7.2187325452161878e-04</value>
          <splits>
            <_><var>1</var>
              <quality>1.4636828564107418e-02</quality>
              <le>3.1358000636100769e-01</le></_></splits></_>
        <_>
          <depth>1</depth>
          <value>-5.6854825759525510e-02</value></_>
        <_>
          <depth>1</depth>
          <value>2.7405463646554168e-01</value></_></nodes></_>
    <_>
      <nodes>
        <_>
          <depth>0</depth>
          <value>1.2582683721453934e-03</value>
          <splits>
            <_><var>1</var>
              <quality>2.1716361865401268e-02</quality>
              <le>2.9732102155685425e-01</le></_></splits></_>
        <_>
          <depth>1</depth>
          <value>8.2934233785521436e-02</value></_>
        <_>
          <depth>1</depth>
          <value>-2.7894815183995114e-01</value></_></nodes></_>
    <_>
      <nodes>
        <_>
          <depth>0</depth>
          <value>-5.3171488236577469e-03</value>
          <splits>
            <_><var>1</var>
              <quality>1.7318258062005043e-02</quality>
              <le>2.4779498577117920e-01</le></_></splits></_>
        <_>
          <depth>1</depth>
          <value>-1.2018367590827704e-01</value></_>
        <_>
          <depth>1</depth>
          <value>1.5324711263946289e-01</value></_></nodes></_>
    <_>
      <nodes>
        <_>
          <depth>0</depth>
          <value>6.0540735723137269e-03</value>
          <splits>
            <_><var>4</var>
              <quality>1.3383565470576286e-02</quality>
              <le>4.3991450220346451e-02</le></_></splits></_>
        <_>
          <depth>1</depth>
          <value>3.4837321088482320e-01</value></_>
        <_>
          <depth>1</depth>
          <value>-3.4946423580224116e-02</value></_></nodes></_>
    <_>
      <nodes>
        <_>
          <depth>0</depth>
          <value>-1.3065898737395719e-03</value>
          <splits>
            <_><var>7</var>
              <quality>1.5272798016667366e-02</quality>
              <le>1.2009100057184696e-02</le></_></splits></_>
        <_>
          <depth>1</depth>
          <value>-1.</value></_>
        <_>
          <depth>1</depth>
          <value>1.4788460172784304e-02</value></_></nodes></_>
    <_>
      <nodes>
        <_>
          <depth>0</depth>
          <value>-2.9808230264744746e-03</value>
          <splits>
            <_><var>8</var>
              <quality>1.3355907984077930e-02</quality>
              <le>8.3836346864700317e-02</le></_></splits></_>
        <_>
          <depth>1</depth>
          <value>-1.6999961371389927e-02</value></_>
        <_>
          <depth>1</depth>
          <value>1.</value></_></nodes></_>
    <_>
      <nodes>
        <_>
          <depth>0</depth>
          <value>2.8060064060480786e-03</value>
          <splits>
            <_><var>7</var>
              <quality>1.4398618601262569e-02</quality>
              <le>8.1899248063564301e-02</le></_></splits></_>
        <_>
          <depth>1</depth>
          <value>2.1788915136257553e-02</value></_>
        <_>
          <depth>1</depth>
          <value>-7.9639348058808868e-01</value></_></nodes></_>
    <_>
      <nodes>
        <_>
          <depth>0</depth>
          <value>-1.9053682162789996e-03</value>
          <splits>
            <_><var>7</var>
              <quality>2.1978808566927910e-02</quality>
              <le>7.5508147478103638e-02</le></_></splits></_>
        <_>
          <depth>1</depth>
          <value>-3.4866688643204052e-02</value></_>
        <_>
          <depth>1</depth>
          <value>7.0007021448959161e-01</value></_></nodes></_>
    <_>
      <nodes>
        <_>
          <depth>0</depth>
          <value>-2.5077641952894552e-03</value>
          <splits>
            <_><var>7</var>
              <quality>1.9564092159271240e-02</quality>
              <le>7.1525901556015015e-02</le></_></splits></_>
        <_>
          <depth>1</depth>
          <value>3.7988585938866039e-02</value></_>
        <_>
          <depth>1</depth>
          <value>-5.1118352335042028e-01</value></_></nodes></_>
    <_>
      <nodes>
        <_>
          <depth>0</depth>
          <value>-5.8974536917752243e-03</value>
          <splits>
            <_><var>3</var>
              <quality>1.3381601311266422e-02</quality>
              <le>3.6907549947500229e-02</le></_></splits></_>
        <_>
          <depth>1</depth>
          <value>-6.1916632453786979e-01</value></_>
        <_>
          <depth>1</depth>
          <value>1.6985522920341910e-02</value></_></nodes></_>
    <_>
      <nodes>
        <_>
          <depth>0</depth>
          <value>-2.1209908452801793e-03</value>
          <splits>
            <_><var>7</var>
              <quality>1.3096903450787067e-02</quality>
              <le>2.1234098821878433e-02</le></_></splits></_>
        <_>
          <depth>1</depth>
          <value>3.2286326996762904e-01</value></_>
        <_>
          <depth>1</depth>
          <value>-4.4518897509033720e-02</value></_></nodes></_>
    <_>
      <nodes>
        <_>
          <depth>0</depth>
          <value>-2.4370597796760898e-03</value>
          <splits>
            <_><var>5</var>
              <quality>1.3757228851318359e-02</quality>
              <le>1.9298050552606583e-02</le></_></splits></_>
        <_>
          <depth>1</depth>
          <value>-1.</value></_>
        <_>
          <depth>1</depth>
          <value>1.2081647683045989e-02</value></_></nodes></_>
    <_>
      <nodes>
        <_>
          <depth>0</depth>
          <value>-5.2892451912633157e-03</value>
          <splits>
            <_><var>4</var>
              <quality>1.1986944824457169e-02</quality>
              <le>5.3175751119852066e-02</le></_></splits></_>
        <_>
          <depth>1</depth>
          <value>-2.3692437210328982e-01</value></_>
        <_>
          <depth>1</depth>
          <value>4.9049963391163583e-02</value></_></nodes></_>
    <_>
      <nodes>
        <_>
          <depth>0</depth>
          <value>6.0910129782094603e-03</value>
          <splits>
            <_><var>2</var>
              <quality>1.4248603954911232e-02</quality>
              <le>1.4019750058650970e-01</le></_></splits></_>
        <_>
          <depth>1</depth>
          <value>1.4890693523011692e-01</value></_>
        <_>
          <depth>1</depth>
          <value>-9.8677557371089492e-02</value></_></nodes></_>
    <_>
      <nodes>
        <_>
          <depth>0</depth>
          <value>-4.6335216452689414e-03</value>
          <splits>
            <_><var>6</var>
              <quality>1.3252459466457367e-02</quality>
              <le>2.4625550955533981e-02</le></_></splits></_>
        <_>
          <depth>1</depth>
          <value>-3.3982282344691134e-01</value></_>
        <_>
          <depth>1</depth>
          <value>3.6975267024718331e-02</value></_></nodes></_>
    <_>
      <nodes>
        <_>
          <depth>0</depth>
          <value>2.4176380142772058e-04</value>
          <splits>
            <_><var>6</var>
              <quality>1.2250107713043690e-02</quality>
              <le>1.0027374327182770e-01</le></_></splits></_>
        <_>
          <depth>1</depth>
          <value>2.3341658839020361e-02</value></_>
        <_>
          <depth>1</depth>
          <value>-5.5801322104703222e-01</value></_></nodes></_>
    <_>
      <nodes>
        <_>
          <depth>0</depth>
          <value>-3.2546270737168416e-03</value>
          <splits>
            <_><var>7</var>
              <quality>1.4771139249205589e-02</quality>
              <le>7.5508147478103638e-02</le></_></splits></_>
        <_>
          <depth>1</depth>
          <value>-3.1720253582394088e-02</value></_>
        <_>
          <depth>1</depth>
          <value>5.4324268413655841e-01</value></_></nodes></_>
    <_>
      <nodes>
        <_>
          <depth>0</depth>
          <value>1.2640399433791348e-03</value>
          <splits>
            <_><var>6</var>
              <quality>1.2116228230297565e-02</quality>
              <le>2.5797151029109955e-02</le></_></splits></_>
        <_>
          <depth>1</depth>
          <value>2.8040176763645352e-01</value></_>
        <_>
          <depth>1</depth>
          <value>-4.4482376575535588e-02</value></_></nodes></_>
    <_>
      <nodes>
        <_>
          <depth>0</depth>
          <value>1.9039784063257451e-03</value>
          <splits>
            <_><var>6</var>
              <quality>1.1973176151514053e-02</quality>
              <le>9.0856105089187622e-02</le></_></splits></_>
        <_>
          <depth>1</depth>
          <value>-3.0657240902865490e-02</value></_>
        <_>
          <depth>1</depth>
          <value>3.8891045407935532e-01</value></_></nodes></_>
    <_>
      <nodes>
        <_>
          <depth>0</depth>
          <value>-1.1640851774744347e-03</value>
          <splits>
            <_><var>8</var>
              <quality>1.6261864453554153e-02</quality>
              <le>5.8214701712131500e-02</le></_></splits></_>
        <_>
          <depth>1</depth>
          <value>4.3025307782396188e-02</value></_>
        <_>
          <depth>1</depth>
          <value>-3.8879416019061769e-01</value></_></nodes></_>
    <_>
      <nodes>
        <_>
          <depth>0</depth>
          <value>1.9082234079171971e-03</value>
          <splits>
            <_><var>8</var>
              <quality>1.6817444935441017e-02</quality>
              <le>5.2748747169971466e-02</le></_></splits></_>
        <_>
          <depth>1</depth>
          <value>-5.6128974333530708e-02</value></_>
        <_>
          <depth>1</depth>
          <value>3.0688598235264430e-01</value></_></nodes></_>
    <_>
      <nodes>
        <_>
          <depth>0</depth>
          <value>-8.1454945279668869e-03</value>
          <splits>
            <_><var>2</var>
              <quality>1.6026163473725319e-02</quality>
              <le>2.8878450393676758e-01</le></_></splits></_>
        <_>
          <depth>1</depth>
          <value>1.7546955477258031e-02</value></_>
        <_>
          <depth>1</depth>
          <value>-6.6240221032238855e-01</value></_></nodes></_>
    <_>
      <nodes>
        <_>
          <depth>0</depth>
          <value>7.6441374700418341e-03</value>
          <splits>
            <_><var>2</var>
              <quality>9.5361219719052315e-03</quality>
              <le>5.8180149644613266e-02</le></_></splits></_>
        <_>
          <depth>1</depth>
          <value>-6.6045697248994273e-01</value></_>
        <_>
          <depth>1</depth>
          <value>2.2587421787378898e-02</value></_></nodes></_>
    <_>
      <nodes>
        <_>
          <depth>0</depth>
          <value>-3.1215549263171106e-03</value>
          <splits>
            <_><var>2</var>
              <quality>1.5426987782120705e-02</quality>
              <le>6.6996544599533081e-02</le></_></splits></_>
        <_>
          <depth>1</depth>
          <value>6.2921230860465227e-01</value></_>
        <_>
          <depth>1</depth>
          <value>-2.8795502999456865e-02</value></_></nodes></_>
    <_>
      <nodes>
        <_>
          <depth>0</depth>
          <value>-1.2862258251422384e-03</value>
          <splits>
            <_><var>2</var>
              <quality>1.4354090206325054e-02</quality>
              <le>9.9927753210067749e-02</le></_></splits></_>
        <_>
          <depth>1</depth>
          <value>-2.9621352174110060e-01</value></_>
        <_>
          <depth>1</depth>
          <value>5.0006485204286334e-02</value></_></nodes></_>
    <_>
      <nodes>
        <_>
          <depth>0</depth>
          <value>-8.5918673145047469e-04</value>
          <splits>
            <_><var>0</var>
              <quality>1.4545124024152756e-02</quality>
              <le>2.6547300815582275e-01</le></_></splits></_>
        <_>
          <depth>1</depth>
          <value>2.4008144826664971e-01</value></_>
        <_>
          <depth>1</depth>
          <value>-6.4404459737054165e-02</value></_></nodes></_>
    <_>
      <nodes>
        <_>
          <depth>0</depth>
          <value>2.1157730987709658e-03</value>
          <splits>
            <_><var>1</var>
              <quality>1.2607295997440815e-02</quality>
              <le>9.1277100145816803e-02</le></_></splits></_>
        <_>
          <depth>1</depth>
          <value>4.5707557743478416e-01</value></_>
        <_>
          <depth>1</depth>
          <value>-2.7051748107431970e-02</value></_></nodes></_>
    <_>
      <nodes>
        <_>
          <depth>0</depth>
          <value>-7.2310756423605424e-03</value>
          <splits>
            <_><var>1</var>
              <quality>1.5960969030857086e-02</quality>
              <le>6.5389201045036316e-02</le></_></splits></_>
        <_>
          <depth>1</depth>
          <value>-1.</value></_>
        <_>
          <depth>1</depth>
          <value>9.6624670032369533e-03</value></_></nodes></_>
    <_>
      <nodes>
        <_>
          <depth>0</depth>
          <value>-6.1065395619352954e-03</value>
          <splits>
            <_><var>2</var>
              <quality>1.1208611540496349e-02</quality>
              <le>2.8723299503326416e-01</le></_></splits></_>
        <_>
          <depth>1</depth>
          <value>-3.1007066433088523e-02</value></_>
        <_>
          <depth>1</depth>
          <value>4.6689475027245902e-01</value></_></nodes></_>
    <_>
      <nodes>
        <_>
          <depth>0</depth>
          <value>4.2682577462205929e-06</value>
          <splits>
            <_><var>5</var>
              <quality>1.0335487313568592e-02</quality>
              <le>2.2082950919866562e-02</le></_></splits></_>
        <_>
          <depth>1</depth>
          <value>7.4401949849740279e-01</value></_>
        <_>
          <depth>1</depth>
          <value>-1.4639083037626115e-02</value></_></nodes></_>
    <_>
      <nodes>
        <_>
          <depth>0</depth>
          <value>-1.1777587323788263e-03</value>
          <splits>
            <_><var>8</var>
              <quality>9.8774228245019913e-03</quality>
              <le>4.9187302589416504e-02</le></_></splits></_>
        <_>
          <depth>1</depth>
          <value>5.3503058278683506e-02</value></_>
        <_>
          <depth>1</depth>
          <value>-1.9131509655916076e-01</value></_></nodes></_>
    <_>
      <nodes>
        <_>
          <depth>0</depth>
          <value>-1.2894939139395975e-03</value>
          <splits>
            <_><var>4</var>
              <quality>1.3404497876763344e-02</quality>
              <le>7.7895849943161011e-02</le></_></splits></_>
        <_>
          <depth>1</depth>
          <value>-1.4085440100931809e-01</value></_>
        <_>
          <depth>1</depth>
          <value>9.9880144454729217e-02</value></_></nodes></_>
    <_>
      <nodes>
        <_>
          <depth>0</depth>
          <value>3.5324564785794528e-03</value>
          <splits>
            <_><var>7</var>
              <quality>1.2453917413949966e-02</quality>
              <le>6.2329199165105820e-02</le></_></splits></_>
        <_>
          <depth>1</depth>
          <value>4.5076521939957613e-02</value></_>
        <_>
          <depth>1</depth>
          <value>-3.1190503518734258e-01</value></_></nodes></_>
    <_>
      <nodes>
        <_>
          <depth>0</depth>
          <value>-1.3661937129314486e-03</value>
          <splits>
            <_><var>8</var>
              <quality>1.8257053568959236e-02</quality>
              <le>6.8162694573402405e-02</le></_></splits></_>
        <_>
          <depth>1</depth>
          <value>-3.3546070047712581e-02</value></_>
        <_>
          <depth>1</depth>
          <value>5.9618680935045210e-01</value></_></nodes></_>
    <_>
      <nodes>
        <_>
          <depth>0</depth>
          <value>-1.4712161811979963e-03</value>
          <splits>
            <_><var>0</var>
              <quality>1.1409200727939606e-02</quality>
              <le>5.2327102422714233e-01</le></_></splits></_>
        <_>
          <depth>1</depth>
          <value>5.1701567642405695e-02</value></_>
        <_>
          <depth>1</depth>
          <value>-2.2741518139072700e-01</value></_></nodes></_>
    <_>
      <nodes>
        <_>
          <depth>0</depth>
          <value>3.0624202469907843e-03</value>
          <splits>
            <_><var>0</var>
              <quality>1.0021787136793137e-02</quality>
              <le>1.4373750686645508e+00</le></_></splits></_>
        <_>
          <depth>1</depth>
          <value>-7.5132957669999468e-03</value></_>
        <_>
          <depth>1</depth>
          <value>1.</value></_></nodes></_>
    <_>
      <nodes>
        <_>
          <depth>0</depth>
          <value>6.7552886699951929e-03</value>
          <splits>
            <_><var>1</var>
              <quality>9.9771339446306229e-03</quality>
              <le>1.9046400487422943e-01</le></_></splits></_>
        <_>
          <depth>1</depth>
          <value>-1.3169712751624502e-01</value></_>
        <_>
          <depth>1</depth>
          <value>8.2309299487427046e-02</value></_></nodes></_>
    <_>
      <nodes>
        <_>
          <depth>0</depth>
          <value>-1.7701671051909909e-03</value>
          <splits>
            <_><var>4</var>
              <quality>1.2134677730500698e-02</quality>
              <le>1.0365100204944611e-01</le></_></splits></_>
        <_>
          <depth>1</depth>
          <value>7.7213476781826981e-02</value></_>
        <_>
          <depth>1</depth>
          <value>-1.6347792535166944e-01</value></_></nodes></_>
    <_>
      <nodes>
        <_>
          <depth>0</depth>
          <value>-3.2729768304884106e-04</value>
          <splits>
            <_><var>4</var>
              <quality>1.4454654417932034e-02</quality>
              <le>1.1526100337505341e-01</le></_></splits></_>
        <_>
          <depth>1</depth>
          <value>-6.8010792272038725e-02</value></_>
        <_>
          <depth>1</depth>
          <value>2.2475700694038167e-01</value></_></nodes></_>
    <_>
      <nodes>
        <_>
          <depth>0</depth>
          <value>-2.3227898151321467e-03</value>
          <splits>
            <_><var>4</var>
              <quality>1.1338681913912296e-02</quality>
              <le>4.2412400245666504e-02</le></_></splits></_>
        <_>
          <depth>1</depth>
          <value>3.7037033330592622e-01</value></_>
        <_>
          <depth>1</depth>
          <value>-3.4369953616831928e-02</value></_></nodes></_>
    <_>
      <nodes>
        <_>
          <depth>0</depth>
          <value>-1.2706991623542923e-03</value>
          <splits>
            <_><var>4</var>
              <quality>1.1670906096696854e-02</quality>
              <le>4.1141048073768616e-02</le></_></splits></_>
        <_>
          <depth>1</depth>
          <value>-4.3018381394103139e-01</value></_>
        <_>
          <depth>1</depth>
          <value>2.7387350149721153e-02</value></_></nodes></_>
    <_>
      <nodes>
        <_>
          <depth>0</depth>
          <value>-2.2337473852051541e-03</value>
          <splits>
            <_><var>6</var>
              <quality>1.1475986801087856e-02</quality>
              <le>5.6507252156734467e-02</le></_></splits></_>
        <_>
          <depth>1</depth>
          <value>7.4407627628266595e-02</value></_>
        <_>
          <depth>1</depth>
          <value>-1.6000823977825898e-01</value></_></nodes></_>
    <_>
      <nodes>
        <_>
          <depth>0</depth>
          <value>2.1223822228004724e-03</value>
          <splits>
            <_><var>6</var>
              <quality>1.7422286793589592e-02</quality>
              <le>4.4223301112651825e-02</le></_></splits></_>
        <_>
          <depth>1</depth>
          <value>-1.2614393142285801e-01</value></_>
        <_>
          <depth>1</depth>
          <value>1.4512533972572234e-01</value></_></nodes></_>
    <_>
      <nodes>
        <_>
          <depth>0</depth>
          <value>4.4286326392302009e-03</value>
          <splits>
            <_><var>6</var>
              <quality>1.4376099221408367e-02</quality>
              <le>3.6124050617218018e-02</le></_></splits></_>
        <_>
          <depth>1</depth>
          <value>1.7627827773563576e-01</value></_>
        <_>
          <depth>1</depth>
          <value>-8.3594299300092947e-02</value></_></nodes></_>
    <_>
      <nodes>
        <_>
          <depth>0</depth>
          <value>-2.5727052601494773e-03</value>
          <splits>
            <_><var>6</var>
              <quality>1.7221389338374138e-02</quality>
              <le>3.3112850040197372e-02</le></_></splits></_>
        <_>
          <depth>1</depth>
          <value>-2.3002514219946249e-01</value></_>
        <_>
          <depth>1</depth>
          <value>7.7147703885991556e-02</value></_></nodes></_>
    <_>
      <nodes>
        <_>
          <depth>0</depth>
          <value>6.3748573788362044e-04</value>
          <splits>
            <_><var>8</var>
              <quality>1.1992098763585091e-02</quality>
              <le>1.6134750097990036e-02</le></_></splits></_>
        <_>
          <depth>1</depth>
          <value>3.9617601728139801e-01</value></_>
        <_>
          <depth>1</depth>
          <value>-3.1281601523149349e-02</value></_></nodes></_>
    <_>
      <nodes>
        <_>
          <depth>0</depth>
          <value>-1.2270936528314710e-03</value>
          <splits>
            <_><var>8</var>
              <quality>1.3957763090729713e-02</quality>
              <le>2.2628448903560638e-02</le></_></splits></_>
        <_>
          <depth>1</depth>
          <value>-2.1822057841981390e-01</value></_>
        <_>
          <depth>1</depth>
          <value>6.6569193002259427e-02</value></_></nodes></_></trees></opencv_ml_boost>
</opencv_storage>
